svm_type c_svc
kernel_type rbf
gamma 0.02
nr_class 2
total_sv 55
rho 19.884318663377936
label 0 1
nr_sv 27 28
SV
8.507007974955314 0:1.0 1:0.0 2:0.96355 3:-0.07198 4:1.0 5:-0.14333 6:1.0 7:-0.21313 8:1.0 9:-0.36174 10:0.9257 11:-0.43569 12:0.9451 13:-0.40668 14:0.90392 15:-0.46381 16:0.98305 17:-0.35257 18:0.84537 19:-0.6602 20:0.75346 21:-0.60589 22:0.69637 23:-0.64225 24:0.85106 25:-0.6544 26:0.57577 27:-0.69712 28:0.25435 29:-0.63919 30:0.45114 31:-0.72779 32:0.38895 33:-0.7342 
127.67376431284912 0:1.0 1:0.0 2:1.0 3:0.06655 4:1.0 5:-0.18388 6:1.0 7:-0.2732 8:1.0 9:-0.43107 10:1.0 11:-0.41349 12:0.96232 13:-0.51874 14:0.90711 15:-0.59017 16:0.8923 17:-0.66474 18:0.69876 19:-0.70997 20:0.70645 21:-0.7632 22:0.63081 23:-0.80544 24:0.55867 25:-0.89128 26:0.47211 27:-0.865 28:0.40303 29:-0.83675 30:0.30996 31:-0.89093 32:0.22995 33:-0.89158 
10.6750290347518 0:1.0 1:0.0 2:1.0 3:1.0 4:1.0 5:1.0 6:0.9101 7:1.0 8:-0.2697 9:1.0 10:-0.83152 11:1.0 12:-1.0 13:1.0 14:-1.0 15:0.72526 16:-1.0 17:-0.57779 18:-1.0 19:-0.42052 20:-1.0 21:-1.0 22:-0.52838 23:-1.0 24:0.90014 25:-1.0 26:1.0 27:-1.0 28:1.0 29:-1.0 30:1.0 31:-0.34686 32:1.0 33:0.34845 
48.71867953530349 0:1.0 1:0.0 2:1.0 3:-0.02259 4:1.0 5:-0.04494 6:1.0 7:-0.06682 8:1.0 9:-0.08799 10:1.0 11:0.56173 12:1.0 13:-0.12738 14:1.0 15:-0.14522 16:1.0 17:0.32407 18:1.0 19:-0.17639 20:0.99484 21:-0.18949 22:0.95601 23:-0.20081 24:1.0 25:-0.92284 26:0.8728 27:-0.21793 28:0.8292 29:-0.2237 30:0.78479 31:-0.22765 32:0.73992 33:-0.22981 
50.22785973894447 0:1.0 1:0.0 2:1.0 3:-0.06604 4:1.0 5:0.62937 6:1.0 7:0.09557 8:1.0 9:0.2028 10:1.0 11:-1.0 12:1.0 13:-0.40559 14:1.0 15:-0.15851 16:1.0 17:0.04895 18:1.0 19:-0.61538 20:1.0 21:-0.26573 22:1.0 23:-1.0 24:1.0 25:-0.58042 26:1.0 27:-0.81372 28:1.0 29:-1.0 30:1.0 31:-0.78555 32:1.0 33:-0.48252 
187.4645185382635 0:1.0 1:0.0 2:0.57647 3:-0.01569 4:0.40392 5:0.0 6:0.38431 7:0.12941 8:0.4 9:-0.05882 10:0.56471 11:0.14118 12:0.46667 13:0.08235 14:0.52549 15:-0.0549 16:0.58039 17:0.01569 18:0.50196 19:0.0 20:0.45882 21:0.06667 22:0.58039 23:0.08235 24:0.49804 25:0.00392 26:0.48601 27:0.10039 28:0.46275 29:0.08235 30:0.45098 31:0.23529 32:0.43137 33:0.17255 
5.051987855594419 0:1.0 1:0.0 2:1.0 3:-0.57224 4:0.9915 5:-0.73371 6:0.89518 7:-0.9745 8:1.0 9:-0.35818 10:1.0 11:-0.23229 12:0.6289 13:-0.86402 14:1.0 15:-0.57535 16:1.0 17:-0.79603 18:0.76771 19:-0.88952 20:0.96601 21:-1.0 22:0.7012 23:-0.74896 24:0.61946 25:-0.76904 26:0.53777 27:-0.77986 28:0.8102 29:-1.0 30:1.0 31:-1.0 32:0.30445 33:-0.76112 
999.3148950350482 0:1.0 1:0.0 2:0.21429 3:-0.09524 4:0.33333 5:0.07143 6:0.19048 7:0.19048 8:0.2381 9:0.09524 10:0.40476 11:0.02381 12:0.30952 13:-0.04762 14:0.30952 15:-0.04762 16:0.28571 17:-0.11905 18:0.33333 19:0.04762 20:0.30952 21:0.0 22:0.21429 23:-0.11905 24:0.35714 25:-0.04762 26:0.22109 27:-0.0229 28:0.19048 29:0.0 30:0.16997 31:-0.02034 32:0.14694 33:-0.01877 
12.292931131090844 0:1.0 1:0.0 2:1.0 3:-0.92453 4:1.0 5:0.75472 6:0.49057 7:-0.0566 8:0.62264 9:0.0 10:1.0 11:-5.4E-4 12:0.45283 13:0.07547 14:0.62264 15:-0.0566 16:0.98878 17:-8.5E-4 18:0.5283 19:0.0 20:0.5283 21:0.07547 22:0.9519 23:-0.00112 24:1.0 25:0.79245 26:0.92192 27:-0.00128 28:0.9434 29:-1.0 30:1.0 31:0.43396 32:0.43396 33:-0.11321 
72.95512871823138 0:1.0 1:0.0 2:0.34694 3:0.20408 4:0.46939 5:0.2449 6:0.40816 7:0.20408 8:0.46939 9:0.44898 10:0.30612 11:0.59184 12:0.12245 13:0.55102 14:0.0 15:0.5102 16:-0.06122 17:0.55102 18:-0.20408 19:0.55102 20:-0.28571 21:0.44898 22:-0.28571 23:0.32653 24:-0.61224 25:0.22449 26:-0.46579 27:0.14895 28:-0.59184 29:0.18367 30:-0.34694 31:0.0 32:-0.26531 33:-0.2449 
361.90240608434283 0:1.0 1:0.0 2:0.26667 3:-0.1 4:0.53333 5:0.0 6:0.33333 7:-0.13333 8:0.36667 9:0.11667 10:0.56667 11:0.01667 12:0.71667 13:0.08333 14:0.7 15:-0.06667 16:0.53333 17:0.2 18:0.41667 19:-0.01667 20:0.31667 21:0.2 22:0.7 23:0.0 24:0.25 25:0.13333 26:0.46214 27:0.05439 28:0.4 29:0.03333 30:0.46667 31:0.03333 32:0.41667 33:-0.05 
188.99857307101612 0:1.0 1:0.0 2:1.0 3:-0.37838 4:0.64865 5:0.2973 6:0.64865 7:-0.24324 8:0.86486 9:0.18919 10:1.0 11:-0.27027 12:0.51351 13:0.0 14:0.62162 15:-0.05405 16:0.32432 17:-0.21622 18:0.71833 19:-0.17666 20:0.62162 21:0.05405 22:0.75676 23:0.13514 24:0.35135 25:-0.2973 26:0.61031 27:-0.22163 28:0.58478 29:-0.23027 30:0.72973 31:-0.59459 32:0.51351 33:-0.24324 
1000.0 0:1.0 1:0.0 2:0.31034 3:-0.10345 4:0.24138 5:-0.10345 6:0.2069 7:-0.06897 8:0.07405 9:-0.05431 10:0.03649 11:-0.03689 12:0.01707 13:-0.02383 14:0.00741 15:-0.01482 16:0.00281 17:-0.00893 18:7.8E-4 19:-0.00523 20:-3.0E-5 21:-0.00299 22:-2.8E-4 23:-0.00166 24:-3.1E-4 25:-9.0E-4 26:-2.5E-4 27:-4.8E-4 28:-1.8E-4 29:-2.4E-4 30:-1.2E-4 31:-1.2E-4 32:-8.0E-5 33:-6.0E-5 
76.1694146289983 0:1.0 1:0.0 2:1.0 3:0.24077 4:0.99815 5:0.00369 6:0.80244 7:-0.30133 8:0.89919 9:-0.23486 10:0.70643 11:-0.24077 12:0.73855 13:-0.30539 14:0.71492 15:-0.36078 16:0.47194 17:-0.61189 18:0.40473 19:-0.55059 20:0.61041 21:-0.39328 22:0.53176 23:-0.32681 24:0.23966 25:-0.52142 26:0.29208 27:-0.4839 28:0.12777 29:-0.39143 30:0.15657 31:-0.51329 32:0.18353 33:-0.46603 
42.763678298018306 0:1.0 1:0.0 2:1.0 3:0.06843 4:1.0 5:0.14211 6:1.0 7:0.22108 8:1.0 9:-0.125 10:1.0 11:0.39495 12:1.0 13:0.48981 14:1.0 15:0.58986 16:-0.375 17:1.0 18:1.0 19:0.0 20:1.0 21:0.92001 22:1.0 23:1.0 24:1.0 25:1.0 26:1.0 27:1.0 28:1.0 29:0.25 30:1.0 31:1.0 32:1.0 33:1.0 
167.66635045617565 0:1.0 1:0.0 2:0.64947 3:-0.07896 4:0.58264 5:-0.1438 6:-0.13129 7:-0.21384 8:0.29796 9:0.04403 10:0.38096 11:-0.26339 12:0.28931 13:-0.31997 14:0.03459 15:-0.18947 16:0.20269 17:-0.29441 18:0.15196 19:-0.29052 20:0.09513 21:-0.31525 22:0.06556 23:-0.26795 24:0.03004 25:-0.25124 26:-4.6E-4 27:-0.2321 28:-0.02612 29:-0.21129 30:-0.04717 31:-0.1895 32:0.01336 33:-0.27201 
104.87738608247548 0:1.0 1:0.0 2:0.47368 3:-0.10526 4:0.83781 5:0.01756 6:0.83155 7:0.02615 8:0.68421 9:-0.05263 10:0.68421 11:0.0 12:0.79856 13:0.05028 14:0.78315 15:0.05756 16:0.84211 17:0.47368 18:1.0 19:0.05263 20:0.7255 21:0.07631 22:0.70301 23:0.08141 24:0.42105 25:0.21053 26:0.65419 27:0.08968 28:0.52632 29:-0.21053 30:0.6015 31:0.09534 32:0.57418 33:0.09719 
41.763346473575446 0:1.0 1:0.0 2:0.93537 3:0.13645 4:0.93716 5:0.25359 6:0.85705 7:0.38779 8:0.79039 9:0.47127 10:0.72352 11:0.59942 12:0.6526 13:0.75 14:0.5083 15:0.73586 16:0.41629 17:0.82742 18:0.25539 19:0.85952 20:0.13712 21:0.85615 22:0.00494 23:0.88869 24:-0.07361 25:0.7978 26:-0.20995 27:0.78004 28:-0.33169 29:0.71454 30:-0.38532 31:0.64363 32:-0.47419 33:0.55835 
9.494663618096908 0:1.0 1:0.0 2:0.32834 3:0.0252 4:0.15236 5:0.21278 6:0.14919 7:0.74003 8:-0.25706 9:0.92324 10:-0.10312 11:0.1938 12:-0.61352 13:0.25786 14:-0.94053 15:-0.05409 16:-0.13117 17:-0.14329 18:-0.30315 19:-0.44615 20:-0.11409 21:-0.85597 22:0.02668 23:-0.22786 24:0.27942 25:-0.06295 26:0.33737 27:-0.11876 28:0.27657 29:-0.11409 30:0.15078 31:0.13296 32:0.12197 33:0.20468 
35.38913429191403 0:1.0 1:0.0 2:0.94631 3:0.17498 4:0.90946 5:0.33143 6:0.85096 7:0.4996 8:0.73678 9:0.63842 10:0.59215 11:0.73838 12:0.48698 13:0.83614 14:0.30459 15:0.90665 16:0.17959 17:0.93429 18:-0.00701 19:0.93109 20:-0.1888 21:0.89383 22:-0.33023 23:0.82492 24:-0.46534 25:0.76482 26:-0.58563 27:0.66335 28:-0.67929 29:0.52564 30:-0.75321 31:0.42488 32:-0.8121 33:0.26092 
51.33721497179787 0:1.0 1:0.0 2:0.47938 3:-0.12371 4:0.42784 5:-0.12371 6:0.70103 7:-0.39175 8:0.73196 9:0.07216 10:0.26289 11:-0.21649 12:0.49485 13:0.15979 14:0.45361 15:-0.11856 16:0.42268 17:0.06186 18:0.5 19:-0.2732 20:0.54639 21:0.18557 22:0.42268 23:0.08247 24:0.70619 25:0.19588 26:0.53396 27:-0.12447 28:0.15464 29:-0.26289 30:0.47423 31:0.04124 32:0.45361 33:-0.51546 
500.79096044415957 0:1.0 1:0.0 2:0.29073 3:0.10025 4:0.23308 5:0.17293 6:0.03759 7:0.34336 8:0.1203 9:0.26316 10:0.06266 11:0.21303 12:-0.04725 13:0.12767 14:-0.06333 15:0.07907 16:-0.06328 17:0.04097 18:-0.05431 19:0.01408 20:-0.04166 21:-0.0028 22:-0.02876 23:-0.01176 24:-0.01755 25:-0.01505 26:-0.00886 27:-0.01475 28:-0.0028 29:-0.0125 30:9.6E-4 31:-0.00948 32:0.0029 33:-0.00647 
172.0621001073745 0:1.0 1:0.0 2:0.47337 3:0.19527 4:0.06213 5:-0.18343 6:0.62316 7:0.01006 8:0.45562 9:-0.04438 10:0.56509 11:0.01775 12:0.44675 13:0.27515 14:0.71598 15:-0.03846 16:0.55621 17:0.12426 18:0.4142 19:0.11538 20:0.52767 21:0.02842 22:0.51183 23:-0.10651 24:0.47929 25:-0.02367 26:0.46514 27:0.03259 28:0.5355 29:0.25148 30:0.31953 31:-0.14497 32:0.34615 33:-0.00296 
24.203930128339177 0:1.0 1:0.0 2:0.51207 3:1.0 4:1.0 5:0.5381 6:0.71178 7:0.80833 8:0.45622 9:0.46427 10:0.33081 11:1.0 12:0.21249 13:1.0 14:-0.17416 15:1.0 16:-0.33081 17:0.98722 18:-0.61382 19:1.0 20:-0.52674 21:0.71699 22:-0.885 23:0.47894 24:-1.0 25:0.35175 26:-1.0 27:0.09569 28:-1.0 29:-0.16713 30:-1.0 31:-0.42226 32:-0.91903 33:-0.65557 
280.2900000489109 0:1.0 1:0.0 2:1.0 3:-0.24051 4:1.0 5:-0.20253 6:0.87342 7:-0.10127 8:0.88608 9:0.01266 10:1.0 11:0.11392 12:0.92405 13:0.06329 14:0.8481 15:-0.03797 16:0.63291 17:-0.36709 18:0.87342 19:-0.01266 20:0.93671 21:0.06329 22:1.0 23:0.25316 24:0.62025 25:-0.37975 26:0.84637 27:-0.0554 28:1.0 29:-0.06329 30:0.53165 31:0.02532 32:0.83544 33:-0.02532 
0.12208774810582591 0:1.0 1:0.0 2:1.0 3:1.0 4:0.367 5:0.06158 6:0.12993 7:0.92713 8:-0.27586 9:0.93596 10:-0.31527 11:0.37685 12:-0.87192 13:0.36946 14:-0.92857 15:-0.08867 16:-0.38916 17:-0.34236 18:-0.46552 19:-0.82512 20:-0.05419 21:-0.93596 22:0.25616 23:-0.20443 24:0.73792 25:-0.4595 26:0.85471 27:-0.06831 28:1.0 29:1.0 30:0.3867 31:0.00246 32:0.17758 33:0.7979 
52.045720940028076 0:1.0 1:0.0 2:0.66667 3:-0.01366 4:0.97404 5:0.06831 6:0.4959 7:0.50137 8:0.75683 9:-0.00273 10:0.65164 11:-0.14071 12:0.40164 13:-0.48907 14:0.39208 15:0.58743 16:0.76776 17:0.31831 18:0.78552 19:0.11339 20:0.47541 21:-0.44945 22:1.0 23:0.00683 24:0.60656 25:0.06967 26:0.68656 27:0.17088 28:0.87568 29:0.07787 30:0.55328 31:0.2459 32:0.13934 33:0.48087 
-52.48015539550251 0:1.0 1:0.0 2:1.0 3:-0.18829 4:0.93035 5:-0.36156 6:-0.10868 7:-0.93597 8:1.0 9:-0.04549 10:0.50874 11:-0.67743 12:0.34432 13:-0.69707 14:-0.51685 15:-0.97515 16:0.05499 17:-0.62237 18:0.33109 19:-1.0 20:-0.13151 21:-0.453 22:-0.18056 23:-0.35734 24:-0.20332 25:-0.26569 26:-0.20468 27:-0.18401 28:-0.1904 29:-0.11593 30:-0.16626 31:-0.06288 32:-0.13738 33:-0.02447 
-73.24769484905933 0:1.0 1:0.0 2:1.0 3:-0.86701 4:1.0 5:0.2228 6:0.85492 7:-0.39896 8:1.0 9:-0.1209 10:1.0 11:0.35147 12:1.0 13:0.07772 14:1.0 15:-0.14767 16:1.0 17:-1.0 18:1.0 19:-1.0 20:0.61831 21:0.15803 22:1.0 23:0.62349 24:1.0 25:-0.17012 26:1.0 27:0.35924 28:1.0 29:-0.66494 30:1.0 31:0.88428 32:1.0 33:-0.18826 
-40.90230110324002 0:1.0 1:0.0 2:0.71253 3:-0.02595 4:0.41287 5:-0.23067 6:0.98019 7:-0.09473 8:0.99709 9:-0.10236 10:1.0 11:-0.10951 12:0.58965 13:1.0 14:0.83726 15:-1.0 16:0.8227 17:-0.17863 18:0.8076 19:-0.28257 20:-0.25914 21:0.9273 22:0.51933 23:0.05456 24:0.65493 25:-0.20392 26:0.93124 27:-0.41307 28:0.63811 29:-0.21901 30:0.86136 31:-0.87354 32:-0.23186 33:-1.0 
-3.8370356809996986 0:0.0 1:0.0 2:0.0 3:0.0 4:0.0 5:0.0 6:0.0 7:0.0 8:1.0 9:1.0 10:1.0 11:1.0 12:0.0 13:0.0 14:0.0 15:0.0 16:-0.375 17:-1.0 18:-1.0 19:-1.0 20:0.0 21:0.0 22:0.0 23:0.0 24:-1.0 25:-1.0 26:-1.0 27:-1.0 28:-1.0 29:1.0 30:1.0 31:0.0 32:0.0 33:0.0 
-32.88043480048263 0:1.0 1:0.0 2:0.69444 3:0.38889 4:0.0 5:0.0 6:-0.32937 7:0.69841 8:0.0 9:0.0 10:0.0 11:0.0 12:0.0 13:0.0 14:0.20635 15:-0.24206 16:0.21032 17:0.19444 18:0.46429 19:0.78175 20:0.0 21:0.0 22:0.0 23:0.0 24:0.73413 25:0.27381 26:0.7619 27:0.63492 28:0.0 29:0.0 30:0.0 31:0.0 32:0.0 33:0.0 
-192.25740282987934 0:1.0 1:0.0 2:0.68198 3:-0.17314 4:0.82332 5:0.21908 6:0.46643 7:0.32862 8:0.25795 9:0.58304 10:1.0 11:-0.15194 12:0.0106 13:0.44523 14:0.0106 15:0.38869 16:0.18681 17:0.41168 18:0.10567 19:0.36353 20:0.04325 21:0.30745 22:-8.3E-4 23:0.24936 24:-0.02862 25:0.19405 26:-0.04314 27:0.14481 28:-0.04779 29:0.10349 30:-0.04585 31:0.07064 32:-0.04013 33:0.04586 
-149.6069168285766 0:1.0 1:0.0 2:0.39179 3:-0.06343 4:0.97464 5:0.04328 6:1.0 7:1.0 8:0.35821 9:0.15299 10:0.54478 11:0.1306 12:0.61567 13:-0.8209 14:0.57836 15:0.6791 16:0.66791 17:-0.10448 18:0.46642 19:-0.11567 20:0.65574 21:0.14792 22:0.83209 23:0.45522 24:0.47015 25:0.16418 26:0.49309 27:0.1463 28:0.32463 29:-0.02612 30:0.39118 31:0.13521 32:0.34411 33:0.12755 
-13.524914404601372 0:1.0 1:0.0 2:0.79157 3:0.16851 4:0.0 5:0.0 6:0.56541 7:0.06874 8:0.39468 9:1.0 10:0.38359 11:0.99557 12:-0.02439 13:0.53215 14:0.23725 15:0.1286 16:-0.02661 17:0.95122 18:-0.50998 19:0.84922 20:-0.102 21:0.38803 22:-0.42572 23:0.23725 24:-0.91574 25:0.8071 26:-0.34146 27:0.88248 28:-1.0 29:0.69401 30:-1.0 31:0.1286 32:0.0 33:0.0 
-21.39007566361628 0:1.0 1:0.0 2:1.0 3:-1.0 4:0.0 5:0.0 6:0.77941 7:-0.99265 8:0.80882 9:0.55147 10:-0.41912 11:-0.94853 12:0.0 13:0.0 14:0.0 15:0.0 16:0.72059 17:-0.77206 18:0.73529 19:-0.60294 20:0.0 21:0.0 22:0.18382 23:-1.0 24:-1.0 25:-1.0 26:-1.0 27:-1.0 28:1.0 29:-1.0 30:1.0 31:-1.0 32:0.0 33:0.0 
-32.634191649179 0:1.0 1:0.0 2:0.42 3:-0.61 4:0.0 5:0.0 6:1.0 7:-1.0 8:0.9 9:1.0 10:0.43 11:0.64 12:0.0 13:0.0 14:0.0 15:0.0 16:0.67 17:-0.29 18:0.84 19:-1.0 20:0.0 21:0.0 22:0.0 23:0.0 24:0.21 25:0.68 26:1.0 27:0.22 28:0.0 29:0.0 30:0.0 31:0.0 32:0.0 33:0.0 
-45.16276347468469 0:1.0 1:0.0 2:0.91353 3:0.81586 4:-0.72973 5:1.0 6:-0.39466 7:0.55735 8:0.05405 9:0.2973 10:-0.18599 11:-0.10241 12:-0.03158 13:-0.0897 14:0.01401 15:-0.03403 16:0.01108 17:-0.00537 18:0.00342 19:9.7E-4 20:4.8E-4 21:7.5E-4 22:-3.0E-5 23:1.9E-4 24:-3.0E-5 25:2.0E-5 26:-1.0E-5 27:0.0 28:0.0 29:0.0 30:0.0 31:0.0 32:0.0 33:0.0 
-397.05126015392034 0:1.0 1:0.0 2:1.0 3:-0.14754 4:1.0 5:0.04918 6:0.57377 7:-0.01639 8:0.65574 9:0.01639 10:0.85246 11:-0.03279 12:0.72131 13:0.0 14:0.68852 15:-0.16393 16:0.19672 17:-0.14754 18:0.65558 19:-0.17176 20:0.67213 21:0.03279 22:1.0 23:-0.29508 24:0.31148 25:-0.34426 26:0.52385 27:-0.20325 28:0.32787 29:-0.03279 30:0.27869 31:-0.44262 32:0.4918 33:-0.06557 
-13.988071651314293 0:1.0 1:0.0 2:1.0 3:-0.05529 4:1.0 5:-1.0 6:0.5 7:-0.11111 8:0.36111 9:-0.22222 10:1.0 11:-0.25712 12:0.16667 13:-0.11111 14:1.0 15:-0.3466 16:1.0 17:-0.38853 18:1.0 19:-0.42862 20:0.0 21:-0.25 22:1.0 23:-0.50333 24:1.0 25:-0.27778 26:1.0 27:-0.57092 28:1.0 29:-0.27778 30:1.0 31:-0.63156 32:1.0 33:-0.65935 
-1000.0 0:1.0 1:0.0 2:0.62745 3:-0.07843 4:0.72549 5:0.0 6:0.60784 7:-0.07843 8:0.62745 9:-0.11765 10:0.68627 11:-0.11765 12:0.66667 13:-0.13725 14:0.64706 15:-0.09804 16:0.54902 17:-0.11765 18:0.54902 19:-0.21569 20:0.58824 21:-0.19608 22:0.66667 23:-0.23529 24:0.45098 25:-0.2549 26:0.52409 27:-0.24668 28:0.56863 29:-0.31373 30:0.43137 31:-0.21569 32:0.47059 33:-0.27451 
-35.330223423306585 0:1.0 1:0.0 2:0.85271 3:0.05426 4:1.0 5:0.08069 6:1.0 7:1.0 8:0.91473 9:-0.00775 10:0.83721 11:0.03876 12:1.0 13:0.27153 14:1.0 15:1.0 16:0.81395 17:0.04651 18:0.90698 19:0.11628 20:1.0 21:0.5067 22:1.0 23:-1.0 24:0.8062 25:0.03876 26:1.0 27:0.71613 28:0.84496 29:0.06977 30:1.0 31:0.87317 32:1.0 33:1.0 
-49.702538342154405 0:1.0 1:0.0 2:0.03852 3:0.02568 4:0.00428 5:0.0 6:0.01997 7:-0.01997 8:0.0214 9:-0.04993 10:-0.0485 11:-0.01284 12:0.01427 13:-0.02282 14:0.0 15:-0.03281 16:-0.04708 17:-0.02853 18:-0.01712 19:0.03566 20:0.0214 21:0.00428 22:0.05136 23:-0.02282 24:0.05136 25:0.01854 26:0.03994 27:0.01569 28:0.01997 29:0.00713 30:-0.02568 31:-0.01854 32:-0.01427 33:0.01997 
-1000.0 0:1.0 1:0.0 2:0.08696 3:0.00686 4:0.13959 5:-0.04119 6:0.10526 7:-0.08238 8:0.12586 9:-0.06178 10:0.23341 11:-0.01144 12:0.12357 13:0.0778 14:0.14645 15:-0.13501 16:0.29062 17:-0.04805 18:0.18993 19:0.07323 20:0.1167 21:0.0 22:0.11213 23:-0.00229 24:0.15103 25:-0.10297 26:0.08467 27:0.01373 28:0.11213 29:-0.06636 30:0.09611 31:-0.07323 32:0.1167 33:-0.06865 
-5.907601002556818 0:1.0 1:0.0 2:1.0 3:1.0 4:1.0 5:0.5125 6:0.625 7:-1.0 8:1.0 9:1.0 10:0.025 11:0.03125 12:1.0 13:1.0 14:0.0 15:0.0 16:1.0 17:-1.0 18:1.0 19:1.0 20:1.0 21:1.0 22:0.3125 23:1.0 24:1.0 25:1.0 26:1.0 27:1.0 28:1.0 29:1.0 30:-0.94375 31:1.0 32:0.0 33:0.0 
-96.56936116312102 0:1.0 1:0.0 2:0.62121 3:-0.63636 4:0.0 5:0.0 6:0.0 7:0.0 8:0.3447 9:0.28788 10:0.42803 11:0.39394 12:-0.07576 13:0.51894 14:0.36364 15:0.31439 16:-0.53788 17:0.32955 18:0.12121 19:-0.14773 20:0.01894 21:-0.53409 22:-0.57576 23:0.17803 24:0.29167 25:-0.27273 26:0.25758 27:-0.57576 28:0.43182 29:0.24242 30:0.18182 31:-0.02273 32:0.17045 33:-0.41667 
-380.3189932394558 0:1.0 1:0.0 2:0.1859 3:-0.16667 4:0.0 5:0.0 6:0.0 7:0.0 8:0.0 9:0.0 10:0.0 11:0.0 12:0.11538 13:-0.19071 14:0.0 15:0.0 16:0.0 17:0.0 18:0.0 19:0.0 20:0.0 21:0.0 22:-0.05128 23:-0.06571 24:0.07853 25:0.08974 26:0.17308 27:-0.10897 28:0.125 29:0.09615 30:0.02564 31:-0.04808 32:0.16827 33:0.19551 
-0.1492091581223735 0:0.0 1:0.0 2:0.0 3:0.0 4:0.0 5:0.0 6:0.0 7:0.0 8:0.0 9:0.0 10:0.0 11:0.0 12:1.0 13:1.0 14:1.0 15:1.0 16:1.0 17:-1.0 18:0.0 19:0.0 20:1.0 21:1.0 22:1.0 23:-1.0 24:1.0 25:1.0 26:1.0 27:0.0 28:1.0 29:1.0 30:1.0 31:-1.0 32:0.0 33:0.0 
-83.93105555165039 0:1.0 1:0.0 2:-0.00641 3:-0.5 4:0.0 5:0.0 6:-0.01923 7:1.0 8:0.0 9:0.0 10:0.0 11:0.0 12:0.0 13:0.0 14:0.0 15:0.0 16:0.0 17:0.0 18:0.3141 19:0.92949 20:-0.35256 21:0.74359 22:-0.34615 23:-0.80769 24:0.0 25:0.0 26:-0.61538 27:-0.51282 28:0.0 29:0.0 30:0.0 31:0.0 32:0.0 33:0.0 
-28.567490342217383 0:0.0 1:0.0 2:1.0 3:-1.0 4:1.0 5:1.0 6:1.0 7:-1.0 8:1.0 9:1.0 10:1.0 11:-1.0 12:1.0 13:-1.0 14:1.0 15:-1.0 16:1.0 17:1.0 18:1.0 19:1.0 20:1.0 21:1.0 22:1.0 23:-1.0 24:1.0 25:1.0 26:1.0 27:1.0 28:1.0 29:1.0 30:1.0 31:1.0 32:1.0 33:-1.0 
-0.9881192185130482 0:0.0 1:0.0 2:1.0 3:-1.0 4:1.0 5:1.0 6:1.0 7:-1.0 8:1.0 9:1.0 10:1.0 11:-1.0 12:1.0 13:1.0 14:1.0 15:-1.0 16:1.0 17:-1.0 18:1.0 19:1.0 20:1.0 21:1.0 22:1.0 23:-1.0 24:1.0 25:-1.0 26:1.0 27:-1.0 28:1.0 29:1.0 30:1.0 31:-1.0 32:1.0 33:1.0 
-108.26966031845149 0:1.0 1:0.0 2:0.68729 3:1.0 4:0.91973 5:-0.76087 6:0.81773 7:0.04348 8:0.76087 9:0.10702 10:0.86789 11:0.73746 12:0.70067 13:0.18227 14:0.7592 15:0.13712 16:0.93478 17:-0.25084 18:0.70736 19:0.18729 20:0.64883 21:0.24582 22:0.60201 23:0.77425 24:1.0 25:-0.53846 26:0.89262 27:0.22216 28:0.7107 29:0.53846 30:1.0 31:-0.06522 32:0.56522 33:0.23913 
-558.2176916100507 0:1.0 1:0.0 2:0.38521 3:0.15564 4:0.41245 5:0.07393 6:0.26459 7:0.24125 8:0.23346 9:0.1323 10:0.19455 11:0.25292 12:0.24514 13:0.36965 14:0.08949 15:0.22957 16:-0.03891 17:0.36965 18:0.05058 19:0.24903 20:0.24903 21:0.09728 22:0.07782 23:0.29961 24:-0.02494 25:0.28482 26:-0.06024 27:0.26256 28:-0.14786 29:0.14786 30:-0.09339 31:0.31128 32:-0.19066 33:0.28794 
-208.08699376330634 0:1.0 1:0.0 2:0.06404 3:-0.15271 4:-0.04433 5:0.05911 6:0.08374 7:-0.02463 8:-0.01478 9:0.18719 10:0.06404 11:0.0 12:0.12315 13:-0.09852 14:0.05911 15:0.0 16:0.0197 17:-0.02956 18:-0.12808 19:-0.2069 20:0.06897 21:0.01478 22:0.06897 23:0.02956 24:0.07882 25:0.16256 26:0.28079 27:-0.04926 28:-0.05911 29:-0.0936 30:0.04433 31:0.05419 32:0.07389 33:-0.10837 
-7.756613650398939 0:1.0 1:0.0 2:0.42708 3:-0.5 4:0.0 5:0.0 6:0.0 7:0.0 8:0.46458 9:0.51042 10:0.58958 11:0.02083 12:0.0 13:0.0 14:0.0 15:0.0 16:0.16458 17:-0.45417 18:0.59167 19:-0.18333 20:0.0 21:0.0 22:0.0 23:0.0 24:0.9875 25:-0.40833 26:-1.0 27:-1.0 28:-0.27917 29:-0.75625 30:0.0 31:0.0 32:0.0 33:0.0 
